digraph Tree {
node [shape=box] ;
0 [label="X[0] <= 0.5\ngini = 0.481\nsamples = 534\nvalue = [319, 215]"] ;
1 [label="X[1] <= 48.5\ngini = 0.385\nsamples = 188\nvalue = [49, 139]"] ;
0 -> 1 [labeldistance=2.5, labelangle=45, headlabel="True"] ;
2 [label="X[1] <= 44.5\ngini = 0.402\nsamples = 176\nvalue = [49, 127]"] ;
1 -> 2 ;
3 [label="X[1] <= 21.5\ngini = 0.388\nsamples = 167\nvalue = [44, 123]"] ;
2 -> 3 ;
4 [label="X[1] <= 1.5\ngini = 0.458\nsamples = 62\nvalue = [22, 40]"] ;
3 -> 4 ;
5 [label="gini = 0.0\nsamples = 2\nvalue = [0, 2]"] ;
4 -> 5 ;
6 [label="X[1] <= 11.5\ngini = 0.464\nsamples = 60\nvalue = [22, 38]"] ;
4 -> 6 ;
7 [label="X[1] <= 8.5\ngini = 0.499\nsamples = 21\nvalue = [10, 11]"] ;
6 -> 7 ;
8 [label="X[1] <= 3.5\ngini = 0.43\nsamples = 16\nvalue = [5, 11]"] ;
7 -> 8 ;
9 [label="X[1] <= 2.5\ngini = 0.48\nsamples = 5\nvalue = [3, 2]"] ;
8 -> 9 ;
10 [label="gini = 0.444\nsamples = 3\nvalue = [2, 1]"] ;
9 -> 10 ;
11 [label="gini = 0.5\nsamples = 2\nvalue = [1, 1]"] ;
9 -> 11 ;
12 [label="X[1] <= 5.5\ngini = 0.298\nsamples = 11\nvalue = [2, 9]"] ;
8 -> 12 ;
13 [label="gini = 0.0\nsamples = 6\nvalue = [0, 6]"] ;
12 -> 13 ;
14 [label="X[1] <= 6.5\ngini = 0.48\nsamples = 5\nvalue = [2, 3]"] ;
12 -> 14 ;
15 [label="gini = 0.5\nsamples = 2\nvalue = [1, 1]"] ;
14 -> 15 ;
16 [label="X[1] <= 7.5\ngini = 0.444\nsamples = 3\nvalue = [1, 2]"] ;
14 -> 16 ;
17 [label="gini = 0.0\nsamples = 1\nvalue = [0, 1]"] ;
16 -> 17 ;
18 [label="gini = 0.5\nsamples = 2\nvalue = [1, 1]"] ;
16 -> 18 ;
19 [label="gini = 0.0\nsamples = 5\nvalue = [5, 0]"] ;
7 -> 19 ;
20 [label="X[1] <= 19.5\ngini = 0.426\nsamples = 39\nvalue = [12, 27]"] ;
6 -> 20 ;
21 [label="X[1] <= 18.5\ngini = 0.383\nsamples = 31\nvalue = [8, 23]"] ;
20 -> 21 ;
22 [label="X[1] <= 17.5\ngini = 0.426\nsamples = 26\nvalue = [8, 18]"] ;
21 -> 22 ;
23 [label="X[1] <= 15.5\ngini = 0.32\nsamples = 15\nvalue = [3, 12]"] ;
22 -> 23 ;
24 [label="X[1] <= 14.5\ngini = 0.245\nsamples = 7\nvalue = [1, 6]"] ;
23 -> 24 ;
25 [label="X[1] <= 13.5\ngini = 0.375\nsamples = 4\nvalue = [1, 3]"] ;
24 -> 25 ;
26 [label="gini = 0.0\nsamples = 1\nvalue = [0, 1]"] ;
25 -> 26 ;
27 [label="gini = 0.444\nsamples = 3\nvalue = [1, 2]"] ;
25 -> 27 ;
28 [label="gini = 0.0\nsamples = 3\nvalue = [0, 3]"] ;
24 -> 28 ;
29 [label="X[1] <= 16.5\ngini = 0.375\nsamples = 8\nvalue = [2, 6]"] ;
23 -> 29 ;
30 [label="gini = 0.375\nsamples = 4\nvalue = [1, 3]"] ;
29 -> 30 ;
31 [label="gini = 0.375\nsamples = 4\nvalue = [1, 3]"] ;
29 -> 31 ;
32 [label="gini = 0.496\nsamples = 11\nvalue = [5, 6]"] ;
22 -> 32 ;
33 [label="gini = 0.0\nsamples = 5\nvalue = [0, 5]"] ;
21 -> 33 ;
34 [label="X[1] <= 20.5\ngini = 0.5\nsamples = 8\nvalue = [4, 4]"] ;
20 -> 34 ;
35 [label="gini = 0.0\nsamples = 2\nvalue = [2, 0]"] ;
34 -> 35 ;
36 [label="gini = 0.444\nsamples = 6\nvalue = [2, 4]"] ;
34 -> 36 ;
37 [label="X[1] <= 37.0\ngini = 0.331\nsamples = 105\nvalue = [22, 83]"] ;
3 -> 37 ;
38 [label="X[1] <= 32.25\ngini = 0.296\nsamples = 83\nvalue = [15, 68]"] ;
37 -> 38 ;
39 [label="X[1] <= 30.25\ngini = 0.348\nsamples = 67\nvalue = [15, 52]"] ;
38 -> 39 ;
40 [label="X[1] <= 24.5\ngini = 0.307\nsamples = 58\nvalue = [11, 47]"] ;
39 -> 40 ;
41 [label="X[1] <= 22.5\ngini = 0.231\nsamples = 30\nvalue = [4, 26]"] ;
40 -> 41 ;
42 [label="gini = 0.165\nsamples = 11\nvalue = [1, 10]"] ;
41 -> 42 ;
43 [label="X[1] <= 23.5\ngini = 0.266\nsamples = 19\nvalue = [3, 16]"] ;
41 -> 43 ;
44 [label="gini = 0.32\nsamples = 5\nvalue = [1, 4]"] ;
43 -> 44 ;
45 [label="gini = 0.245\nsamples = 14\nvalue = [2, 12]"] ;
43 -> 45 ;
46 [label="X[1] <= 25.5\ngini = 0.375\nsamples = 28\nvalue = [7, 21]"] ;
40 -> 46 ;
47 [label="gini = 0.5\nsamples = 2\nvalue = [1, 1]"] ;
46 -> 47 ;
48 [label="X[1] <= 27.5\ngini = 0.355\nsamples = 26\nvalue = [6, 20]"] ;
46 -> 48 ;
49 [label="X[1] <= 26.5\ngini = 0.245\nsamples = 7\nvalue = [1, 6]"] ;
48 -> 49 ;
50 [label="gini = 0.375\nsamples = 4\nvalue = [1, 3]"] ;
49 -> 50 ;
51 [label="gini = 0.0\nsamples = 3\nvalue = [0, 3]"] ;
49 -> 51 ;
52 [label="X[1] <= 28.5\ngini = 0.388\nsamples = 19\nvalue = [5, 14]"] ;
48 -> 52 ;
53 [label="gini = 0.48\nsamples = 5\nvalue = [2, 3]"] ;
52 -> 53 ;
54 [label="X[1] <= 29.5\ngini = 0.337\nsamples = 14\nvalue = [3, 11]"] ;
52 -> 54 ;
55 [label="gini = 0.32\nsamples = 5\nvalue = [1, 4]"] ;
54 -> 55 ;
56 [label="gini = 0.346\nsamples = 9\nvalue = [2, 7]"] ;
54 -> 56 ;
57 [label="X[1] <= 30.75\ngini = 0.494\nsamples = 9\nvalue = [4, 5]"] ;
39 -> 57 ;
58 [label="gini = 0.0\nsamples = 1\nvalue = [1, 0]"] ;
57 -> 58 ;
59 [label="X[1] <= 31.5\ngini = 0.469\nsamples = 8\nvalue = [3, 5]"] ;
57 -> 59 ;
60 [label="gini = 0.48\nsamples = 5\nvalue = [2, 3]"] ;
59 -> 60 ;
61 [label="gini = 0.444\nsamples = 3\nvalue = [1, 2]"] ;
59 -> 61 ;
62 [label="gini = 0.0\nsamples = 16\nvalue = [0, 16]"] ;
38 -> 62 ;
63 [label="X[1] <= 41.5\ngini = 0.434\nsamples = 22\nvalue = [7, 15]"] ;
37 -> 63 ;
64 [label="X[1] <= 40.5\ngini = 0.48\nsamples = 15\nvalue = [6, 9]"] ;
63 -> 64 ;
65 [label="X[1] <= 38.5\ngini = 0.463\nsamples = 11\nvalue = [4, 7]"] ;
64 -> 65 ;
66 [label="gini = 0.444\nsamples = 3\nvalue = [1, 2]"] ;
65 -> 66 ;
67 [label="X[1] <= 39.5\ngini = 0.469\nsamples = 8\nvalue = [3, 5]"] ;
65 -> 67 ;
68 [label="gini = 0.48\nsamples = 5\nvalue = [2, 3]"] ;
67 -> 68 ;
69 [label="gini = 0.444\nsamples = 3\nvalue = [1, 2]"] ;
67 -> 69 ;
70 [label="gini = 0.5\nsamples = 4\nvalue = [2, 2]"] ;
64 -> 70 ;
71 [label="X[1] <= 42.5\ngini = 0.245\nsamples = 7\nvalue = [1, 6]"] ;
63 -> 71 ;
72 [label="gini = 0.0\nsamples = 3\nvalue = [0, 3]"] ;
71 -> 72 ;
73 [label="X[1] <= 43.5\ngini = 0.375\nsamples = 4\nvalue = [1, 3]"] ;
71 -> 73 ;
74 [label="gini = 0.5\nsamples = 2\nvalue = [1, 1]"] ;
73 -> 74 ;
75 [label="gini = 0.0\nsamples = 2\nvalue = [0, 2]"] ;
73 -> 75 ;
76 [label="X[1] <= 46.0\ngini = 0.494\nsamples = 9\nvalue = [5, 4]"] ;
2 -> 76 ;
77 [label="gini = 0.48\nsamples = 5\nvalue = [3, 2]"] ;
76 -> 77 ;
78 [label="X[1] <= 47.5\ngini = 0.5\nsamples = 4\nvalue = [2, 2]"] ;
76 -> 78 ;
79 [label="gini = 0.5\nsamples = 2\nvalue = [1, 1]"] ;
78 -> 79 ;
80 [label="gini = 0.5\nsamples = 2\nvalue = [1, 1]"] ;
78 -> 80 ;
81 [label="gini = 0.0\nsamples = 12\nvalue = [0, 12]"] ;
1 -> 81 ;
82 [label="X[1] <= 3.5\ngini = 0.343\nsamples = 346\nvalue = [270, 76]"] ;
0 -> 82 [labeldistance=2.5, labelangle=-45, headlabel="False"] ;
83 [label="X[1] <= 0.96\ngini = 0.337\nsamples = 14\nvalue = [3, 11]"] ;
82 -> 83 ;
84 [label="gini = 0.0\nsamples = 5\nvalue = [0, 5]"] ;
83 -> 84 ;
85 [label="X[1] <= 2.5\ngini = 0.444\nsamples = 9\nvalue = [3, 6]"] ;
83 -> 85 ;
86 [label="X[1] <= 1.5\ngini = 0.48\nsamples = 5\nvalue = [3, 2]"] ;
85 -> 86 ;
87 [label="gini = 0.5\nsamples = 2\nvalue = [1, 1]"] ;
86 -> 87 ;
88 [label="gini = 0.444\nsamples = 3\nvalue = [2, 1]"] ;
86 -> 88 ;
89 [label="gini = 0.0\nsamples = 4\nvalue = [0, 4]"] ;
85 -> 89 ;
90 [label="X[1] <= 13.0\ngini = 0.315\nsamples = 332\nvalue = [267, 65]"] ;
82 -> 90 ;
91 [label="X[1] <= 11.5\ngini = 0.484\nsamples = 17\nvalue = [10, 7]"] ;
90 -> 91 ;
92 [label="X[1] <= 7.5\ngini = 0.469\nsamples = 16\nvalue = [10, 6]"] ;
91 -> 92 ;
93 [label="X[1] <= 6.5\ngini = 0.408\nsamples = 7\nvalue = [5, 2]"] ;
92 -> 93 ;
94 [label="X[1] <= 5.0\ngini = 0.48\nsamples = 5\nvalue = [3, 2]"] ;
93 -> 94 ;
95 [label="gini = 0.375\nsamples = 4\nvalue = [3, 1]"] ;
94 -> 95 ;
96 [label="gini = 0.0\nsamples = 1\nvalue = [0, 1]"] ;
94 -> 96 ;
97 [label="gini = 0.0\nsamples = 2\nvalue = [2, 0]"] ;
93 -> 97 ;
98 [label="X[1] <= 9.5\ngini = 0.494\nsamples = 9\nvalue = [5, 4]"] ;
92 -> 98 ;
99 [label="X[1] <= 8.5\ngini = 0.48\nsamples = 5\nvalue = [2, 3]"] ;
98 -> 99 ;
100 [label="gini = 0.5\nsamples = 2\nvalue = [1, 1]"] ;
99 -> 100 ;
101 [label="gini = 0.444\nsamples = 3\nvalue = [1, 2]"] ;
99 -> 101 ;
102 [label="X[1] <= 10.5\ngini = 0.375\nsamples = 4\nvalue = [3, 1]"] ;
98 -> 102 ;
103 [label="gini = 0.0\nsamples = 1\nvalue = [1, 0]"] ;
102 -> 103 ;
104 [label="gini = 0.444\nsamples = 3\nvalue = [2, 1]"] ;
102 -> 104 ;
105 [label="gini = 0.0\nsamples = 1\nvalue = [0, 1]"] ;
91 -> 105 ;
106 [label="X[1] <= 24.75\ngini = 0.3\nsamples = 315\nvalue = [257, 58]"] ;
90 -> 106 ;
107 [label="X[1] <= 18.5\ngini = 0.162\nsamples = 90\nvalue = [82, 8]"] ;
106 -> 107 ;
108 [label="X[1] <= 17.5\ngini = 0.08\nsamples = 24\nvalue = [23, 1]"] ;
107 -> 108 ;
109 [label="X[1] <= 16.5\ngini = 0.133\nsamples = 14\nvalue = [13, 1]"] ;
108 -> 109 ;
110 [label="gini = 0.0\nsamples = 8\nvalue = [8, 0]"] ;
109 -> 110 ;
111 [label="gini = 0.278\nsamples = 6\nvalue = [5, 1]"] ;
109 -> 111 ;
112 [label="gini = 0.0\nsamples = 10\nvalue = [10, 0]"] ;
108 -> 112 ;
113 [label="X[1] <= 20.25\ngini = 0.19\nsamples = 66\nvalue = [59, 7]"] ;
107 -> 113 ;
114 [label="X[1] <= 19.5\ngini = 0.278\nsamples = 24\nvalue = [20, 4]"] ;
113 -> 114 ;
115 [label="gini = 0.231\nsamples = 15\nvalue = [13, 2]"] ;
114 -> 115 ;
116 [label="gini = 0.346\nsamples = 9\nvalue = [7, 2]"] ;
114 -> 116 ;
117 [label="X[1] <= 22.5\ngini = 0.133\nsamples = 42\nvalue = [39, 3]"] ;
113 -> 117 ;
118 [label="X[1] <= 20.75\ngini = 0.159\nsamples = 23\nvalue = [21, 2]"] ;
117 -> 118 ;
119 [label="gini = 0.0\nsamples = 1\nvalue = [1, 0]"] ;
118 -> 119 ;
120 [label="X[1] <= 21.5\ngini = 0.165\nsamples = 22\nvalue = [20, 2]"] ;
118 -> 120 ;
121 [label="gini = 0.165\nsamples = 11\nvalue = [10, 1]"] ;
120 -> 121 ;
122 [label="gini = 0.165\nsamples = 11\nvalue = [10, 1]"] ;
120 -> 122 ;
123 [label="X[1] <= 23.5\ngini = 0.1\nsamples = 19\nvalue = [18, 1]"] ;
117 -> 123 ;
124 [label="gini = 0.0\nsamples = 9\nvalue = [9, 0]"] ;
123 -> 124 ;
125 [label="X[1] <= 24.25\ngini = 0.18\nsamples = 10\nvalue = [9, 1]"] ;
123 -> 125 ;
126 [label="gini = 0.198\nsamples = 9\nvalue = [8, 1]"] ;
125 -> 126 ;
127 [label="gini = 0.0\nsamples = 1\nvalue = [1, 0]"] ;
125 -> 127 ;
128 [label="X[1] <= 51.5\ngini = 0.346\nsamples = 225\nvalue = [175, 50]"] ;
106 -> 128 ;
129 [label="X[1] <= 47.5\ngini = 0.366\nsamples = 195\nvalue = [148, 47]"] ;
128 -> 129 ;
130 [label="X[1] <= 42.5\ngini = 0.347\nsamples = 179\nvalue = [139, 40]"] ;
129 -> 130 ;
131 [label="X[1] <= 30.75\ngini = 0.367\nsamples = 161\nvalue = [122, 39]"] ;
130 -> 131 ;
132 [label="X[1] <= 29.5\ngini = 0.33\nsamples = 72\nvalue = [57, 15]"] ;
131 -> 132 ;
133 [label="X[1] <= 27.5\ngini = 0.379\nsamples = 59\nvalue = [44, 15]"] ;
132 -> 133 ;
134 [label="X[1] <= 26.5\ngini = 0.415\nsamples = 34\nvalue = [24, 10]"] ;
133 -> 134 ;
135 [label="X[1] <= 25.5\ngini = 0.355\nsamples = 26\nvalue = [20, 6]"] ;
134 -> 135 ;
136 [label="gini = 0.32\nsamples = 15\nvalue = [12, 3]"] ;
135 -> 136 ;
137 [label="gini = 0.397\nsamples = 11\nvalue = [8, 3]"] ;
135 -> 137 ;
138 [label="gini = 0.5\nsamples = 8\nvalue = [4, 4]"] ;
134 -> 138 ;
139 [label="X[1] <= 28.75\ngini = 0.32\nsamples = 25\nvalue = [20, 5]"] ;
133 -> 139 ;
140 [label="X[1] <= 28.25\ngini = 0.219\nsamples = 16\nvalue = [14, 2]"] ;
139 -> 140 ;
141 [label="gini = 0.245\nsamples = 14\nvalue = [12, 2]"] ;
140 -> 141 ;
142 [label="gini = 0.0\nsamples = 2\nvalue = [2, 0]"] ;
140 -> 142 ;
143 [label="gini = 0.444\nsamples = 9\nvalue = [6, 3]"] ;
139 -> 143 ;
144 [label="gini = 0.0\nsamples = 13\nvalue = [13, 0]"] ;
132 -> 144 ;
145 [label="X[1] <= 32.25\ngini = 0.394\nsamples = 89\nvalue = [65, 24]"] ;
131 -> 145 ;
146 [label="X[1] <= 31.5\ngini = 0.476\nsamples = 23\nvalue = [14, 9]"] ;
145 -> 146 ;
147 [label="gini = 0.42\nsamples = 10\nvalue = [7, 3]"] ;
146 -> 147 ;
148 [label="gini = 0.497\nsamples = 13\nvalue = [7, 6]"] ;
146 -> 148 ;
149 [label="X[1] <= 33.5\ngini = 0.351\nsamples = 66\nvalue = [51, 15]"] ;
145 -> 149 ;
150 [label="gini = 0.0\nsamples = 7\nvalue = [7, 0]"] ;
149 -> 150 ;
151 [label="X[1] <= 37.5\ngini = 0.379\nsamples = 59\nvalue = [44, 15]"] ;
149 -> 151 ;
152 [label="X[1] <= 34.5\ngini = 0.436\nsamples = 28\nvalue = [19, 9]"] ;
151 -> 152 ;
153 [label="gini = 0.346\nsamples = 9\nvalue = [7, 2]"] ;
152 -> 153 ;
154 [label="X[1] <= 35.5\ngini = 0.465\nsamples = 19\nvalue = [12, 7]"] ;
152 -> 154 ;
155 [label="gini = 0.444\nsamples = 9\nvalue = [6, 3]"] ;
154 -> 155 ;
156 [label="X[1] <= 36.5\ngini = 0.48\nsamples = 10\nvalue = [6, 4]"] ;
154 -> 156 ;
157 [label="gini = 0.49\nsamples = 7\nvalue = [4, 3]"] ;
156 -> 157 ;
158 [label="gini = 0.444\nsamples = 3\nvalue = [2, 1]"] ;
156 -> 158 ;
159 [label="X[1] <= 41.5\ngini = 0.312\nsamples = 31\nvalue = [25, 6]"] ;
151 -> 159 ;
160 [label="X[1] <= 40.25\ngini = 0.227\nsamples = 23\nvalue = [20, 3]"] ;
159 -> 160 ;
161 [label="X[1] <= 38.5\ngini = 0.266\nsamples = 19\nvalue = [16, 3]"] ;
160 -> 161 ;
162 [label="gini = 0.32\nsamples = 5\nvalue = [4, 1]"] ;
161 -> 162 ;
163 [label="X[1] <= 39.5\ngini = 0.245\nsamples = 14\nvalue = [12, 2]"] ;
161 -> 163 ;
164 [label="gini = 0.245\nsamples = 7\nvalue = [6, 1]"] ;
163 -> 164 ;
165 [label="gini = 0.245\nsamples = 7\nvalue = [6, 1]"] ;
163 -> 165 ;
166 [label="gini = 0.0\nsamples = 4\nvalue = [4, 0]"] ;
160 -> 166 ;
167 [label="gini = 0.469\nsamples = 8\nvalue = [5, 3]"] ;
159 -> 167 ;
168 [label="X[1] <= 45.25\ngini = 0.105\nsamples = 18\nvalue = [17, 1]"] ;
130 -> 168 ;
169 [label="X[1] <= 44.5\ngini = 0.198\nsamples = 9\nvalue = [8, 1]"] ;
168 -> 169 ;
170 [label="gini = 0.0\nsamples = 5\nvalue = [5, 0]"] ;
169 -> 170 ;
171 [label="gini = 0.375\nsamples = 4\nvalue = [3, 1]"] ;
169 -> 171 ;
172 [label="gini = 0.0\nsamples = 9\nvalue = [9, 0]"] ;
168 -> 172 ;
173 [label="X[1] <= 49.5\ngini = 0.492\nsamples = 16\nvalue = [9, 7]"] ;
129 -> 173 ;
174 [label="X[1] <= 48.5\ngini = 0.469\nsamples = 8\nvalue = [3, 5]"] ;
173 -> 174 ;
175 [label="gini = 0.48\nsamples = 5\nvalue = [2, 3]"] ;
174 -> 175 ;
176 [label="gini = 0.444\nsamples = 3\nvalue = [1, 2]"] ;
174 -> 176 ;
177 [label="X[1] <= 50.5\ngini = 0.375\nsamples = 8\nvalue = [6, 2]"] ;
173 -> 177 ;
178 [label="gini = 0.444\nsamples = 3\nvalue = [2, 1]"] ;
177 -> 178 ;
179 [label="gini = 0.32\nsamples = 5\nvalue = [4, 1]"] ;
177 -> 179 ;
180 [label="X[1] <= 55.75\ngini = 0.18\nsamples = 30\nvalue = [27, 3]"] ;
128 -> 180 ;
181 [label="gini = 0.0\nsamples = 9\nvalue = [9, 0]"] ;
180 -> 181 ;
182 [label="X[1] <= 56.5\ngini = 0.245\nsamples = 21\nvalue = [18, 3]"] ;
180 -> 182 ;
183 [label="gini = 0.5\nsamples = 2\nvalue = [1, 1]"] ;
182 -> 183 ;
184 [label="X[1] <= 63.0\ngini = 0.188\nsamples = 19\nvalue = [17, 2]"] ;
182 -> 184 ;
185 [label="X[1] <= 59.5\ngini = 0.298\nsamples = 11\nvalue = [9, 2]"] ;
184 -> 185 ;
186 [label="gini = 0.0\nsamples = 4\nvalue = [4, 0]"] ;
185 -> 186 ;
187 [label="X[1] <= 60.5\ngini = 0.408\nsamples = 7\nvalue = [5, 2]"] ;
185 -> 187 ;
188 [label="gini = 0.5\nsamples = 2\nvalue = [1, 1]"] ;
187 -> 188 ;
189 [label="X[1] <= 61.5\ngini = 0.32\nsamples = 5\nvalue = [4, 1]"] ;
187 -> 189 ;
190 [label="gini = 0.0\nsamples = 2\nvalue = [2, 0]"] ;
189 -> 190 ;
191 [label="gini = 0.444\nsamples = 3\nvalue = [2, 1]"] ;
189 -> 191 ;
192 [label="gini = 0.0\nsamples = 8\nvalue = [8, 0]"] ;
184 -> 192 ;
}
